<?xml version="1.0"?>
<opencv_storage>
<cascade>
  <stageType>BOOST</stageType>
  <featureType>HAAR</featureType>
  <height>24</height>
  <width>24</width>
  <stageParams>
    <boostType>GAB</boostType>
    <minHitRate>9.9000000953674316e-01</minHitRate>
    <maxFalseAlarm>3.0000001192092896e-01</maxFalseAlarm>
    <weightTrimRate>9.4999999999999996e-01</weightTrimRate>
    <maxDepth>1</maxDepth>
    <maxWeakCount>100</maxWeakCount></stageParams>
  <featureParams>
    <maxCatCount>0</maxCatCount>
    <featSize>1</featSize>
    <mode>BASIC</mode></featureParams>
  <stageNum>8</stageNum>
  <stages>
    <!-- stage 0 -->
    <_>
      <maxWeakCount>2</maxWeakCount>
      <stageThreshold>-1.6296266019344330e-01</stageThreshold>
      <weakClassifiers>
        <_>
          <internalNodes>
            0 -1 17 -1.1340675503015518e-01</internalNodes>
          <leafValues>
            7.9439252614974976e-01 -9.7269624471664429e-01</leafValues></_>
        <_>
          <internalNodes>
            0 -1 10 4.3175339698791504e-02</internalNodes>
          <leafValues>
            -9.4519889354705811e-01 8.0973356962203979e-01</leafValues></_></weakClassifiers></_>
    <!-- stage 1 -->
    <_>
      <maxWeakCount>2</maxWeakCount>
      <stageThreshold>-3.5152426362037659e-01</stageThreshold>
      <weakClassifiers>
        <_>
          <internalNodes>
            0 -1 16 1.2474658899009228e-02</internalNodes>
          <leafValues>
            -9.2491465806961060e-01 6.6355139017105103e-01</leafValues></_>
        <_>
          <internalNodes>
            0 -1 6 -8.7981820106506348e-03</internalNodes>
          <leafValues>
            5.7339042425155640e-01 -9.6817213296890259e-01</leafValues></_></weakClassifiers></_>
    <!-- stage 2 -->
    <_>
      <maxWeakCount>4</maxWeakCount>
      <stageThreshold>-5.4648625850677490e-01</stageThreshold>
      <weakClassifiers>
        <_>
          <internalNodes>
            0 -1 26 -1.1698157526552677e-02</internalNodes>
          <leafValues>
            7.4712646007537842e-01 -8.4664535522460938e-01</leafValues></_>
        <_>
          <internalNodes>
            0 -1 18 -4.5726180076599121e-02</internalNodes>
          <leafValues>
            6.8840926885604858e-01 -8.7892097234725952e-01</leafValues></_>
        <_>
          <internalNodes>
            0 -1 14 -1.9040104001760483e-02</internalNodes>
          <leafValues>
            6.2910068035125732e-01 -8.6709147691726685e-01</leafValues></_>
        <_>
          <internalNodes>
            0 -1 22 -1.1039405129849911e-02</internalNodes>
          <leafValues>
            5.4997944831848145e-01 -9.3295890092849731e-01</leafValues></_></weakClassifiers></_>
    <!-- stage 3 -->
    <_>
      <maxWeakCount>4</maxWeakCount>
      <stageThreshold>-3.5167029500007629e-01</stageThreshold>
      <weakClassifiers>
        <_>
          <internalNodes>
            0 -1 24 -5.1403520628809929e-03</internalNodes>
          <leafValues>
            6.1363637447357178e-01 -8.1410259008407593e-01</leafValues></_>
        <_>
          <internalNodes>
            0 -1 5 -4.1046254336833954e-03</internalNodes>
          <leafValues>
            5.9376293420791626e-01 -7.9589617252349854e-01</leafValues></_>
        <_>
          <internalNodes>
            0 -1 19 1.3678811490535736e-02</internalNodes>
          <leafValues>
            -6.2024849653244019e-01 7.1340078115463257e-01</leafValues></_>
        <_>
          <internalNodes>
            0 -1 9 1.3613961637020111e-03</internalNodes>
          <leafValues>
            -8.4473145008087158e-01 5.6645661592483521e-01</leafValues></_></weakClassifiers></_>
    <!-- stage 4 -->
    <_>
      <maxWeakCount>4</maxWeakCount>
      <stageThreshold>-9.8189663887023926e-01</stageThreshold>
      <weakClassifiers>
        <_>
          <internalNodes>
            0 -1 11 2.4183839559555054e-02</internalNodes>
          <leafValues>
            -8.6013984680175781e-01 4.0350878238677979e-01</leafValues></_>
        <_>
          <internalNodes>
            0 -1 15 -1.7987227439880371e-01</internalNodes>
          <leafValues>
            -9.5760703086853027e-01 4.1977882385253906e-01</leafValues></_>
        <_>
          <internalNodes>
            0 -1 0 9.0643120929598808e-03</internalNodes>
          <leafValues>
            -7.7714323997497559e-01 4.8340746760368347e-01</leafValues></_>
        <_>
          <internalNodes>
            0 -1 2 -2.8241411782801151e-03</internalNodes>
          <leafValues>
            3.4934484958648682e-01 -8.9379864931106567e-01</leafValues></_></weakClassifiers></_>
    <!-- stage 5 -->
    <_>
      <maxWeakCount>3</maxWeakCount>
      <stageThreshold>-7.8008431196212769e-01</stageThreshold>
      <weakClassifiers>
        <_>
          <internalNodes>
            0 -1 27 -1.2214081361889839e-02</internalNodes>
          <leafValues>
            8.1250000000000000e-01 -7.5000000000000000e-01</leafValues></_>
        <_>
          <internalNodes>
            0 -1 7 -2.3839829955250025e-03</internalNodes>
          <leafValues>
            6.1457175016403198e-01 -6.5344035625457764e-01</leafValues></_>
        <_>
          <internalNodes>
            0 -1 20 -7.7245913445949554e-02</internalNodes>
          <leafValues>
            6.9564318656921387e-01 -6.4465606212615967e-01</leafValues></_></weakClassifiers></_>
    <!-- stage 6 -->
    <_>
      <maxWeakCount>4</maxWeakCount>
      <stageThreshold>-5.5833578109741211e-01</stageThreshold>
      <weakClassifiers>
        <_>
          <internalNodes>
            0 -1 13 1.1147111654281616e-02</internalNodes>
          <leafValues>
            -7.9054051637649536e-01 3.2692307233810425e-01</leafValues></_>
        <_>
          <internalNodes>
            0 -1 4 5.5235035717487335e-02</internalNodes>
          <leafValues>
            -7.3279047012329102e-01 4.0793135762214661e-01</leafValues></_>
        <_>
          <internalNodes>
            0 -1 25 -1.1766771785914898e-03</internalNodes>
          <leafValues>
            5.8813506364822388e-01 -6.0418701171875000e-01</leafValues></_>
        <_>
          <internalNodes>
            0 -1 23 1.8586765974760056e-02</internalNodes>
          <leafValues>
            -6.8900316953659058e-01 4.8322206735610962e-01</leafValues></_></weakClassifiers></_>
    <!-- stage 7 -->
    <_>
      <maxWeakCount>6</maxWeakCount>
      <stageThreshold>-8.7542605400085449e-01</stageThreshold>
      <weakClassifiers>
        <_>
          <internalNodes>
            0 -1 28 -7.6643452048301697e-03</internalNodes>
          <leafValues>
            3.1958761811256409e-01 -7.6237624883651733e-01</leafValues></_>
        <_>
          <internalNodes>
            0 -1 12 8.8159605860710144e-02</internalNodes>
          <leafValues>
            -6.5505886077880859e-01 4.9992430210113525e-01</leafValues></_>
        <_>
          <internalNodes>
            0 -1 21 -1.7067083390429616e-03</internalNodes>
          <leafValues>
            3.3660110831260681e-01 -9.3868273496627808e-01</leafValues></_>
        <_>
          <internalNodes>
            0 -1 3 8.3289970643818378e-04</internalNodes>
          <leafValues>
            2.9727387428283691e-01 -9.1639208793640137e-01</leafValues></_>
        <_>
          <internalNodes>
            0 -1 1 -1.9356477260589600e-01</internalNodes>
          <leafValues>
            7.3268687725067139e-01 -4.4634819030761719e-01</leafValues></_>
        <_>
          <internalNodes>
            0 -1 8 -5.0513464957475662e-03</internalNodes>
          <leafValues>
            4.9402099847793579e-01 -6.9285070896148682e-01</leafValues></_></weakClassifiers></_></stages>
  <features>
    <_>
      <rects>
        <_>
          0 1 6 4 -1.</_>
        <_>
          3 1 3 4 2.</_></rects>
      <tilted>0</tilted></_>
    <_>
      <rects>
        <_>
          0 8 21 14 -1.</_>
        <_>
          0 15 21 7 2.</_></rects>
      <tilted>0</tilted></_>
    <_>
      <rects>
        <_>
          3 8 4 10 -1.</_>
        <_>
          5 8 2 10 2.</_></rects>
      <tilted>0</tilted></_>
    <_>
      <rects>
        <_>
          4 2 5 10 -1.</_>
        <_>
          4 7 5 5 2.</_></rects>
      <tilted>0</tilted></_>
    <_>
      <rects>
        <_>
          4 6 10 12 -1.</_>
        <_>
          4 6 5 6 2.</_>
        <_>
          9 12 5 6 2.</_></rects>
      <tilted>0</tilted></_>
    <_>
      <rects>
        <_>
          4 8 4 2 -1.</_>
        <_>
          6 8 2 2 2.</_></rects>
      <tilted>0</tilted></_>
    <_>
      <rects>
        <_>
          5 6 6 5 -1.</_>
        <_>
          8 6 3 5 2.</_></rects>
      <tilted>0</tilted></_>
    <_>
      <rects>
        <_>
          8 2 3 2 -1.</_>
        <_>
          8 3 3 1 2.</_></rects>
      <tilted>0</tilted></_>
    <_>
      <rects>
        <_>
          8 3 6 4 -1.</_>
        <_>
          8 3 3 2 2.</_>
        <_>
          11 5 3 2 2.</_></rects>
      <tilted>0</tilted></_>
    <_>
      <rects>
        <_>
          9 23 10 1 -1.</_>
        <_>
          14 23 5 1 2.</_></rects>
      <tilted>0</tilted></_>
    <_>
      <rects>
        <_>
          10 4 10 5 -1.</_>
        <_>
          15 4 5 5 2.</_></rects>
      <tilted>0</tilted></_>
    <_>
      <rects>
        <_>
          10 9 6 4 -1.</_>
        <_>
          10 11 6 2 2.</_></rects>
      <tilted>0</tilted></_>
    <_>
      <rects>
        <_>
          11 0 12 10 -1.</_>
        <_>
          11 0 6 5 2.</_>
        <_>
          17 5 6 5 2.</_></rects>
      <tilted>0</tilted></_>
    <_>
      <rects>
        <_>
          12 0 2 21 -1.</_>
        <_>
          13 0 1 21 2.</_></rects>
      <tilted>0</tilted></_>
    <_>
      <rects>
        <_>
          12 3 4 6 -1.</_>
        <_>
          12 6 4 3 2.</_></rects>
      <tilted>0</tilted></_>
    <_>
      <rects>
        <_>
          12 4 12 5 -1.</_>
        <_>
          16 4 4 5 2.</_></rects>
      <tilted>0</tilted></_>
    <_>
      <rects>
        <_>
          12 8 2 6 -1.</_>
        <_>
          12 11 2 3 2.</_></rects>
      <tilted>0</tilted></_>
    <_>
      <rects>
        <_>
          13 3 3 12 -1.</_>
        <_>
          13 7 3 4 2.</_></rects>
      <tilted>0</tilted></_>
    <_>
      <rects>
        <_>
          13 4 6 18 -1.</_>
        <_>
          13 4 3 9 2.</_>
        <_>
          16 13 3 9 2.</_></rects>
      <tilted>0</tilted></_>
    <_>
      <rects>
        <_>
          13 8 8 1 -1.</_>
        <_>
          17 8 4 1 2.</_></rects>
      <tilted>0</tilted></_>
    <_>
      <rects>
        <_>
          13 11 9 10 -1.</_>
        <_>
          13 16 9 5 2.</_></rects>
      <tilted>0</tilted></_>
    <_>
      <rects>
        <_>
          14 12 2 4 -1.</_>
        <_>
          14 14 2 2 2.</_></rects>
      <tilted>0</tilted></_>
    <_>
      <rects>
        <_>
          14 12 8 4 -1.</_>
        <_>
          14 14 8 2 2.</_></rects>
      <tilted>0</tilted></_>
    <_>
      <rects>
        <_>
          18 2 6 16 -1.</_>
        <_>
          18 2 3 8 2.</_>
        <_>
          21 10 3 8 2.</_></rects>
      <tilted>0</tilted></_>
    <_>
      <rects>
        <_>
          19 20 4 4 -1.</_>
        <_>
          19 20 2 2 2.</_>
        <_>
          21 22 2 2 2.</_></rects>
      <tilted>0</tilted></_>
    <_>
      <rects>
        <_>
          20 22 2 2 -1.</_>
        <_>
          20 23 2 1 2.</_></rects>
      <tilted>0</tilted></_>
    <_>
      <rects>
        <_>
          22 8 2 15 -1.</_>
        <_>
          23 8 1 15 2.</_></rects>
      <tilted>0</tilted></_>
    <_>
      <rects>
        <_>
          22 10 2 9 -1.</_>
        <_>
          23 10 1 9 2.</_></rects>
      <tilted>0</tilted></_>
    <_>
      <rects>
        <_>
          22 15 2 7 -1.</_>
        <_>
          23 15 1 7 2.</_></rects>
      <tilted>0</tilted></_></features></cascade>
</opencv_storage>
